digraph Tree {
node [shape=box, style="filled, rounded", color="black", fontname="helvetica"] ;
edge [fontname="helvetica"] ;
0 [label="hospital_number <= 533338.5\ngini = 0.64\nsamples = 626\nvalue = [322, 221, 445]\nclass = died", fillcolor="#e8dafa"] ;
1 [label="abdomo_appearance <= 1.83\ngini = 0.6\nsamples = 417\nvalue = [264, 77, 306]\nclass = died", fillcolor="#f1e9fc"] ;
0 -> 1 [labeldistance=2.5, labelangle=45, headlabel="True"] ;
2 [label="mucous_membrane <= 3.5\ngini = 0.5\nsamples = 211\nvalue = [87.0, 32.0, 220.0]\nclass = died", fillcolor="#bc96f1"] ;
1 -> 2 ;
3 [label="surgical_lesion <= 0.5\ngini = 0.43\nsamples = 139\nvalue = [45, 19, 167]\nclass = died", fillcolor="#ac7dee"] ;
2 -> 3 ;
4 [label="pulse <= 76.0\ngini = 0.23\nsamples = 62\nvalue = [3, 10, 89]\nclass = died", fillcolor="#9355e9"] ;
3 -> 4 ;
5 [label="lesion_1 <= 19705.0\ngini = 0.07\nsamples = 53\nvalue = [2, 1, 79]\nclass = died", fillcolor="#8640e6"] ;
4 -> 5 ;
6 [label="abdomo_protein <= 2.85\ngini = 0.05\nsamples = 51\nvalue = [2, 0, 78]\nclass = died", fillcolor="#843ee6"] ;
5 -> 6 ;
7 [label="abdomo_appearance <= 0.5\ngini = 0.16\nsamples = 15\nvalue = [2, 0, 21]\nclass = died", fillcolor="#8d4ce7"] ;
6 -> 7 ;
8 [label="gini = 0.0\nsamples = 8\nvalue = [0, 0, 11]\nclass = died", fillcolor="#8139e5"] ;
7 -> 8 ;
9 [label="peristalsis <= 2.5\ngini = 0.28\nsamples = 7\nvalue = [2, 0, 10]\nclass = died", fillcolor="#9a61ea"] ;
7 -> 9 ;
10 [label="gini = 0.0\nsamples = 4\nvalue = [0, 0, 7]\nclass = died", fillcolor="#8139e5"] ;
9 -> 10 ;
11 [label="gini = 0.48\nsamples = 3\nvalue = [2, 0, 3]\nclass = died", fillcolor="#d5bdf6"] ;
9 -> 11 ;
12 [label="gini = 0.0\nsamples = 36\nvalue = [0, 0, 57]\nclass = died", fillcolor="#8139e5"] ;
6 -> 12 ;
13 [label="gini = 0.5\nsamples = 2\nvalue = [0, 1, 1]\nclass = euthanized", fillcolor="#ffffff"] ;
5 -> 13 ;
14 [label="rectal_temp <= 38.1\ngini = 0.54\nsamples = 9\nvalue = [1, 9, 10]\nclass = died", fillcolor="#f4edfd"] ;
4 -> 14 ;
15 [label="mucous_membrane <= 1.5\ngini = 0.3\nsamples = 4\nvalue = [0, 9, 2]\nclass = euthanized", fillcolor="#65eb9d"] ;
14 -> 15 ;
16 [label="gini = 0.0\nsamples = 1\nvalue = [0, 0, 2]\nclass = died", fillcolor="#8139e5"] ;
15 -> 16 ;
17 [label="gini = 0.0\nsamples = 3\nvalue = [0, 9, 0]\nclass = euthanized", fillcolor="#39e581"] ;
15 -> 17 ;
18 [label="age <= 0.5\ngini = 0.2\nsamples = 5\nvalue = [1, 0, 8]\nclass = died", fillcolor="#9152e8"] ;
14 -> 18 ;
19 [label="gini = 0.0\nsamples = 4\nvalue = [0, 0, 8]\nclass = died", fillcolor="#8139e5"] ;
18 -> 19 ;
20 [label="gini = 0.0\nsamples = 1\nvalue = [1, 0, 0]\nclass = lived", fillcolor="#e58139"] ;
18 -> 20 ;
21 [label="packed_cell_volume <= 44.5\ngini = 0.52\nsamples = 77\nvalue = [42, 9, 78]\nclass = died", fillcolor="#cbadf4"] ;
3 -> 21 ;
22 [label="abdomo_appearance <= 0.5\ngini = 0.35\nsamples = 42\nvalue = [11, 4, 55]\nclass = died", fillcolor="#a16bec"] ;
21 -> 22 ;
23 [label="pain <= 2.0\ngini = 0.08\nsamples = 12\nvalue = [1, 0, 23]\nclass = died", fillcolor="#8642e6"] ;
22 -> 23 ;
24 [label="rectal_exam_feces <= 0.5\ngini = 0.17\nsamples = 4\nvalue = [1, 0, 10]\nclass = died", fillcolor="#8e4de8"] ;
23 -> 24 ;
25 [label="gini = 0.0\nsamples = 1\nvalue = [1, 0, 0]\nclass = lived", fillcolor="#e58139"] ;
24 -> 25 ;
26 [label="gini = 0.0\nsamples = 3\nvalue = [0, 0, 10]\nclass = died", fillcolor="#8139e5"] ;
24 -> 26 ;
27 [label="gini = 0.0\nsamples = 8\nvalue = [0, 0, 13]\nclass = died", fillcolor="#8139e5"] ;
23 -> 27 ;
28 [label="packed_cell_volume <= 37.5\ngini = 0.46\nsamples = 30\nvalue = [10, 4, 32]\nclass = died", fillcolor="#b286ef"] ;
22 -> 28 ;
29 [label="rectal_temp <= 39.15\ngini = 0.54\nsamples = 6\nvalue = [6, 1, 3]\nclass = lived", fillcolor="#f4c9aa"] ;
28 -> 29 ;
30 [label="lesion_1 <= 4205.5\ngini = 0.44\nsamples = 5\nvalue = [6, 0, 3]\nclass = lived", fillcolor="#f2c09c"] ;
29 -> 30 ;
31 [label="gini = 0.0\nsamples = 2\nvalue = [0, 0, 3]\nclass = died", fillcolor="#8139e5"] ;
30 -> 31 ;
32 [label="gini = 0.0\nsamples = 3\nvalue = [6, 0, 0]\nclass = lived", fillcolor="#e58139"] ;
30 -> 32 ;
33 [label="gini = 0.0\nsamples = 1\nvalue = [0, 1, 0]\nclass = euthanized", fillcolor="#39e581"] ;
29 -> 33 ;
34 [label="rectal_temp <= 39.2\ngini = 0.33\nsamples = 24\nvalue = [4, 3, 29]\nclass = died", fillcolor="#9d64eb"] ;
28 -> 34 ;
35 [label="hospital_number <= 528508.5\ngini = 0.21\nsamples = 23\nvalue = [4, 0, 29]\nclass = died", fillcolor="#9254e9"] ;
34 -> 35 ;
36 [label="abdominal_distention <= 2.0\ngini = 0.38\nsamples = 5\nvalue = [2, 0, 6]\nclass = died", fillcolor="#ab7bee"] ;
35 -> 36 ;
37 [label="gini = 0.5\nsamples = 2\nvalue = [1, 0, 1]\nclass = lived", fillcolor="#ffffff"] ;
36 -> 37 ;
38 [label="gini = 0.28\nsamples = 3\nvalue = [1, 0, 5]\nclass = died", fillcolor="#9a61ea"] ;
36 -> 38 ;
39 [label="cp_data <= 0.5\ngini = 0.15\nsamples = 18\nvalue = [2, 0, 23]\nclass = died", fillcolor="#8c4ae7"] ;
35 -> 39 ;
40 [label="gini = 0.0\nsamples = 5\nvalue = [0, 0, 9]\nclass = died", fillcolor="#8139e5"] ;
39 -> 40 ;
41 [label="peristalsis <= 3.5\ngini = 0.22\nsamples = 13\nvalue = [2, 0, 14]\nclass = died", fillcolor="#9355e9"] ;
39 -> 41 ;
42 [label="temp_of_extremities <= 1.67\ngini = 0.12\nsamples = 12\nvalue = [1, 0, 14]\nclass = died", fillcolor="#8a47e7"] ;
41 -> 42 ;
43 [label="gini = 0.0\nsamples = 8\nvalue = [0, 0, 10]\nclass = died", fillcolor="#8139e5"] ;
42 -> 43 ;
44 [label="abdomen <= 0.5\ngini = 0.32\nsamples = 4\nvalue = [1, 0, 4]\nclass = died", fillcolor="#a06aec"] ;
42 -> 44 ;
45 [label="gini = 0.0\nsamples = 1\nvalue = [1, 0, 0]\nclass = lived", fillcolor="#e58139"] ;
44 -> 45 ;
46 [label="gini = 0.0\nsamples = 3\nvalue = [0, 0, 4]\nclass = died", fillcolor="#8139e5"] ;
44 -> 46 ;
47 [label="gini = 0.0\nsamples = 1\nvalue = [1, 0, 0]\nclass = lived", fillcolor="#e58139"] ;
41 -> 47 ;
48 [label="gini = 0.0\nsamples = 1\nvalue = [0, 3, 0]\nclass = euthanized", fillcolor="#39e581"] ;
34 -> 48 ;
49 [label="respiratory_rate <= 55.5\ngini = 0.56\nsamples = 35\nvalue = [31.0, 5.0, 23.0]\nclass = lived", fillcolor="#f9e3d3"] ;
21 -> 49 ;
50 [label="abdomen <= 0.5\ngini = 0.58\nsamples = 32\nvalue = [26, 5, 23]\nclass = lived", fillcolor="#fcf3ec"] ;
49 -> 50 ;
51 [label="respiratory_rate <= 42.0\ngini = 0.41\nsamples = 10\nvalue = [10, 0, 4]\nclass = lived", fillcolor="#efb388"] ;
50 -> 51 ;
52 [label="gini = 0.0\nsamples = 8\nvalue = [10, 0, 0]\nclass = lived", fillcolor="#e58139"] ;
51 -> 52 ;
53 [label="gini = 0.0\nsamples = 2\nvalue = [0, 0, 4]\nclass = died", fillcolor="#8139e5"] ;
51 -> 53 ;
54 [label="rectal_exam_feces <= 2.5\ngini = 0.6\nsamples = 22\nvalue = [16, 5, 19]\nclass = died", fillcolor="#efe6fc"] ;
50 -> 54 ;
55 [label="abdominal_distention <= 2.5\ngini = 0.51\nsamples = 17\nvalue = [12, 1, 19]\nclass = died", fillcolor="#d3baf6"] ;
54 -> 55 ;
56 [label="abdomo_appearance <= 0.5\ngini = 0.5\nsamples = 10\nvalue = [12, 1, 6]\nclass = lived", fillcolor="#f3c5a4"] ;
55 -> 56 ;
57 [label="gini = 0.41\nsamples = 2\nvalue = [2, 0, 5]\nclass = died", fillcolor="#b388ef"] ;
56 -> 57 ;
58 [label="pain <= 0.5\ngini = 0.29\nsamples = 8\nvalue = [10, 1, 1]\nclass = lived", fillcolor="#ea985d"] ;
56 -> 58 ;
59 [label="gini = 0.0\nsamples = 1\nvalue = [0, 0, 1]\nclass = died", fillcolor="#8139e5"] ;
58 -> 59 ;
60 [label="nasogastric_reflux_ph <= 6.0\ngini = 0.17\nsamples = 7\nvalue = [10, 1, 0]\nclass = lived", fillcolor="#e88e4d"] ;
58 -> 60 ;
61 [label="gini = 0.0\nsamples = 5\nvalue = [9, 0, 0]\nclass = lived", fillcolor="#e58139"] ;
60 -> 61 ;
62 [label="gini = 0.5\nsamples = 2\nvalue = [1, 1, 0]\nclass = lived", fillcolor="#ffffff"] ;
60 -> 62 ;
63 [label="gini = 0.0\nsamples = 7\nvalue = [0, 0, 13]\nclass = died", fillcolor="#8139e5"] ;
55 -> 63 ;
64 [label="nasogastric_reflux_ph <= 5.9\ngini = 0.5\nsamples = 5\nvalue = [4, 4, 0]\nclass = lived", fillcolor="#ffffff"] ;
54 -> 64 ;
65 [label="gini = 0.0\nsamples = 2\nvalue = [0, 4, 0]\nclass = euthanized", fillcolor="#39e581"] ;
64 -> 65 ;
66 [label="gini = 0.0\nsamples = 3\nvalue = [4, 0, 0]\nclass = lived", fillcolor="#e58139"] ;
64 -> 66 ;
67 [label="gini = 0.0\nsamples = 3\nvalue = [5, 0, 0]\nclass = lived", fillcolor="#e58139"] ;
49 -> 67 ;
68 [label="abdominal_distention <= 2.17\ngini = 0.59\nsamples = 72\nvalue = [42, 13, 53]\nclass = died", fillcolor="#eadefb"] ;
2 -> 68 ;
69 [label="nasogastric_reflux_ph <= 6.75\ngini = 0.56\nsamples = 47\nvalue = [38, 6, 29]\nclass = lived", fillcolor="#fae5d6"] ;
68 -> 69 ;
70 [label="lesion_1 <= 3206.0\ngini = 0.54\nsamples = 38\nvalue = [36, 6, 18]\nclass = lived", fillcolor="#f4c9aa"] ;
69 -> 70 ;
71 [label="pulse <= 75.0\ngini = 0.63\nsamples = 21\nvalue = [13, 6, 14]\nclass = died", fillcolor="#f9f5fe"] ;
70 -> 71 ;
72 [label="rectal_temp <= 37.55\ngini = 0.53\nsamples = 14\nvalue = [3, 4, 12]\nclass = died", fillcolor="#bc95f1"] ;
71 -> 72 ;
73 [label="gini = 0.0\nsamples = 2\nvalue = [2, 0, 0]\nclass = lived", fillcolor="#e58139"] ;
72 -> 73 ;
74 [label="pulse <= 62.0\ngini = 0.44\nsamples = 12\nvalue = [1, 4, 12]\nclass = died", fillcolor="#b185ef"] ;
72 -> 74 ;
75 [label="surgery <= 0.5\ngini = 0.56\nsamples = 8\nvalue = [1, 4, 6]\nclass = died", fillcolor="#dbc6f8"] ;
74 -> 75 ;
76 [label="gini = 0.44\nsamples = 3\nvalue = [1, 2, 0]\nclass = euthanized", fillcolor="#9cf2c0"] ;
75 -> 76 ;
77 [label="pain <= 3.5\ngini = 0.38\nsamples = 5\nvalue = [0, 2, 6]\nclass = died", fillcolor="#ab7bee"] ;
75 -> 77 ;
78 [label="gini = 0.0\nsamples = 4\nvalue = [0, 0, 6]\nclass = died", fillcolor="#8139e5"] ;
77 -> 78 ;
79 [label="gini = 0.0\nsamples = 1\nvalue = [0, 2, 0]\nclass = euthanized", fillcolor="#39e581"] ;
77 -> 79 ;
80 [label="gini = 0.0\nsamples = 4\nvalue = [0, 0, 6]\nclass = died", fillcolor="#8139e5"] ;
74 -> 80 ;
81 [label="abdomo_protein <= 5.95\ngini = 0.45\nsamples = 7\nvalue = [10, 2, 2]\nclass = lived", fillcolor="#eeab7b"] ;
71 -> 81 ;
82 [label="pain <= 1.5\ngini = 0.28\nsamples = 6\nvalue = [10, 2, 0]\nclass = lived", fillcolor="#ea9a61"] ;
81 -> 82 ;
83 [label="gini = 0.0\nsamples = 1\nvalue = [0, 2, 0]\nclass = euthanized", fillcolor="#39e581"] ;
82 -> 83 ;
84 [label="gini = 0.0\nsamples = 5\nvalue = [10, 0, 0]\nclass = lived", fillcolor="#e58139"] ;
82 -> 84 ;
85 [label="gini = 0.0\nsamples = 1\nvalue = [0, 0, 2]\nclass = died", fillcolor="#8139e5"] ;
81 -> 85 ;
86 [label="lesion_2 <= 1555.5\ngini = 0.25\nsamples = 17\nvalue = [23, 0, 4]\nclass = lived", fillcolor="#ea975b"] ;
70 -> 86 ;
87 [label="nasogastric_reflux <= 0.5\ngini = 0.2\nsamples = 16\nvalue = [23, 0, 3]\nclass = lived", fillcolor="#e89153"] ;
86 -> 87 ;
88 [label="gini = 0.48\nsamples = 3\nvalue = [2, 0, 3]\nclass = died", fillcolor="#d5bdf6"] ;
87 -> 88 ;
89 [label="gini = 0.0\nsamples = 13\nvalue = [21, 0, 0]\nclass = lived", fillcolor="#e58139"] ;
87 -> 89 ;
90 [label="gini = 0.0\nsamples = 1\nvalue = [0, 0, 1]\nclass = died", fillcolor="#8139e5"] ;
86 -> 90 ;
91 [label="pulse <= 55.0\ngini = 0.26\nsamples = 9\nvalue = [2, 0, 11]\nclass = died", fillcolor="#985dea"] ;
69 -> 91 ;
92 [label="abdomen <= 2.0\ngini = 0.5\nsamples = 4\nvalue = [2, 0, 2]\nclass = lived", fillcolor="#ffffff"] ;
91 -> 92 ;
93 [label="gini = 0.0\nsamples = 2\nvalue = [2, 0, 0]\nclass = lived", fillcolor="#e58139"] ;
92 -> 93 ;
94 [label="gini = 0.0\nsamples = 2\nvalue = [0, 0, 2]\nclass = died", fillcolor="#8139e5"] ;
92 -> 94 ;
95 [label="gini = 0.0\nsamples = 5\nvalue = [0, 0, 9]\nclass = died", fillcolor="#8139e5"] ;
91 -> 95 ;
96 [label="abdomo_protein <= 6.2\ngini = 0.48\nsamples = 25\nvalue = [4, 7, 24]\nclass = died", fillcolor="#b287ef"] ;
68 -> 96 ;
97 [label="lesion_1 <= 2660.0\ngini = 0.35\nsamples = 22\nvalue = [4, 2, 23]\nclass = died", fillcolor="#9f69eb"] ;
96 -> 97 ;
98 [label="peripheral_pulse <= 1.0\ngini = 0.46\nsamples = 16\nvalue = [4, 2, 14]\nclass = died", fillcolor="#b083ef"] ;
97 -> 98 ;
99 [label="gini = 0.0\nsamples = 2\nvalue = [0, 2, 0]\nclass = euthanized", fillcolor="#39e581"] ;
98 -> 99 ;
100 [label="packed_cell_volume <= 48.5\ngini = 0.35\nsamples = 14\nvalue = [4, 0, 14]\nclass = died", fillcolor="#a572ec"] ;
98 -> 100 ;
101 [label="lesion_1 <= 2208.5\ngini = 0.12\nsamples = 11\nvalue = [1, 0, 14]\nclass = died", fillcolor="#8a47e7"] ;
100 -> 101 ;
102 [label="gini = 0.0\nsamples = 10\nvalue = [0, 0, 14]\nclass = died", fillcolor="#8139e5"] ;
101 -> 102 ;
103 [label="gini = 0.0\nsamples = 1\nvalue = [1, 0, 0]\nclass = lived", fillcolor="#e58139"] ;
101 -> 103 ;
104 [label="gini = 0.0\nsamples = 3\nvalue = [3, 0, 0]\nclass = lived", fillcolor="#e58139"] ;
100 -> 104 ;
105 [label="gini = 0.0\nsamples = 6\nvalue = [0, 0, 9]\nclass = died", fillcolor="#8139e5"] ;
97 -> 105 ;
106 [label="gini = 0.28\nsamples = 3\nvalue = [0, 5, 1]\nclass = euthanized", fillcolor="#61ea9a"] ;
96 -> 106 ;
107 [label="surgery <= 0.5\ngini = 0.57\nsamples = 206\nvalue = [177, 45, 86]\nclass = lived", fillcolor="#f4cbae"] ;
1 -> 107 ;
108 [label="mucous_membrane <= 4.5\ngini = 0.62\nsamples = 47\nvalue = [32, 24, 11]\nclass = lived", fillcolor="#fae8da"] ;
107 -> 108 ;
109 [label="rectal_exam_feces <= 2.5\ngini = 0.6\nsamples = 42\nvalue = [32, 16, 11]\nclass = lived", fillcolor="#f5d0b5"] ;
108 -> 109 ;
110 [label="pulse <= 80.0\ngini = 0.56\nsamples = 31\nvalue = [27, 8, 10]\nclass = lived", fillcolor="#f2c29f"] ;
109 -> 110 ;
111 [label="gini = 0.0\nsamples = 2\nvalue = [0, 0, 4]\nclass = died", fillcolor="#8139e5"] ;
110 -> 111 ;
112 [label="abdomo_protein <= 4.0\ngini = 0.51\nsamples = 29\nvalue = [27, 8, 6]\nclass = lived", fillcolor="#f0b68d"] ;
110 -> 112 ;
113 [label="pulse <= 124.5\ngini = 0.65\nsamples = 12\nvalue = [7, 4, 6]\nclass = lived", fillcolor="#fdf4ed"] ;
112 -> 113 ;
114 [label="hospital_number <= 528005.5\ngini = 0.62\nsamples = 10\nvalue = [7, 4, 3]\nclass = lived", fillcolor="#f7d9c4"] ;
113 -> 114 ;
115 [label="gini = 0.0\nsamples = 1\nvalue = [0, 0, 2]\nclass = died", fillcolor="#8139e5"] ;
114 -> 115 ;
116 [label="abdomen <= 0.17\ngini = 0.54\nsamples = 9\nvalue = [7, 4, 1]\nclass = lived", fillcolor="#f5d0b5"] ;
114 -> 116 ;
117 [label="gini = 0.38\nsamples = 3\nvalue = [1, 3, 0]\nclass = euthanized", fillcolor="#7beeab"] ;
116 -> 117 ;
118 [label="pulse <= 96.0\ngini = 0.41\nsamples = 6\nvalue = [6, 1, 1]\nclass = lived", fillcolor="#eca572"] ;
116 -> 118 ;
119 [label="gini = 0.0\nsamples = 1\nvalue = [0, 1, 0]\nclass = euthanized", fillcolor="#39e581"] ;
118 -> 119 ;
120 [label="packed_cell_volume <= 61.0\ngini = 0.24\nsamples = 5\nvalue = [6, 0, 1]\nclass = lived", fillcolor="#e9965a"] ;
118 -> 120 ;
121 [label="gini = 0.44\nsamples = 2\nvalue = [2, 0, 1]\nclass = lived", fillcolor="#f2c09c"] ;
120 -> 121 ;
122 [label="gini = 0.0\nsamples = 3\nvalue = [4, 0, 0]\nclass = lived", fillcolor="#e58139"] ;
120 -> 122 ;
123 [label="gini = 0.0\nsamples = 2\nvalue = [0, 0, 3]\nclass = died", fillcolor="#8139e5"] ;
113 -> 123 ;
124 [label="packed_cell_volume <= 72.5\ngini = 0.28\nsamples = 17\nvalue = [20, 4, 0]\nclass = lived", fillcolor="#ea9a61"] ;
112 -> 124 ;
125 [label="abdomo_protein <= 7.0\ngini = 0.23\nsamples = 16\nvalue = [20, 3, 0]\nclass = lived", fillcolor="#e99457"] ;
124 -> 125 ;
126 [label="rectal_exam_feces <= 1.5\ngini = 0.17\nsamples = 15\nvalue = [20, 2, 0]\nclass = lived", fillcolor="#e88e4d"] ;
125 -> 126 ;
127 [label="capillary_refill_time <= 1.5\ngini = 0.09\nsamples = 14\nvalue = [20, 1, 0]\nclass = lived", fillcolor="#e68743"] ;
126 -> 127 ;
128 [label="gini = 0.44\nsamples = 2\nvalue = [2, 1, 0]\nclass = lived", fillcolor="#f2c09c"] ;
127 -> 128 ;
129 [label="gini = 0.0\nsamples = 12\nvalue = [18, 0, 0]\nclass = lived", fillcolor="#e58139"] ;
127 -> 129 ;
130 [label="gini = 0.0\nsamples = 1\nvalue = [0, 1, 0]\nclass = euthanized", fillcolor="#39e581"] ;
126 -> 130 ;
131 [label="gini = 0.0\nsamples = 1\nvalue = [0, 1, 0]\nclass = euthanized", fillcolor="#39e581"] ;
125 -> 131 ;
132 [label="gini = 0.0\nsamples = 1\nvalue = [0, 1, 0]\nclass = euthanized", fillcolor="#39e581"] ;
124 -> 132 ;
133 [label="cp_data <= 0.5\ngini = 0.54\nsamples = 11\nvalue = [5, 8, 1]\nclass = euthanized", fillcolor="#bdf6d5"] ;
109 -> 133 ;
134 [label="rectal_temp <= 38.15\ngini = 0.38\nsamples = 6\nvalue = [2, 6, 0]\nclass = euthanized", fillcolor="#7beeab"] ;
133 -> 134 ;
135 [label="gini = 0.0\nsamples = 1\nvalue = [1, 0, 0]\nclass = lived", fillcolor="#e58139"] ;
134 -> 135 ;
136 [label="pulse <= 101.0\ngini = 0.24\nsamples = 5\nvalue = [1, 6, 0]\nclass = euthanized", fillcolor="#5ae996"] ;
134 -> 136 ;
137 [label="gini = 0.0\nsamples = 1\nvalue = [0, 1, 0]\nclass = euthanized", fillcolor="#39e581"] ;
136 -> 137 ;
138 [label="abdomen <= 0.5\ngini = 0.28\nsamples = 4\nvalue = [1, 5, 0]\nclass = euthanized", fillcolor="#61ea9a"] ;
136 -> 138 ;
139 [label="gini = 0.0\nsamples = 2\nvalue = [0, 3, 0]\nclass = euthanized", fillcolor="#39e581"] ;
138 -> 139 ;
140 [label="gini = 0.44\nsamples = 2\nvalue = [1, 2, 0]\nclass = euthanized", fillcolor="#9cf2c0"] ;
138 -> 140 ;
141 [label="pain <= 3.5\ngini = 0.61\nsamples = 5\nvalue = [3, 2, 1]\nclass = lived", fillcolor="#f8e0ce"] ;
133 -> 141 ;
142 [label="gini = 0.0\nsamples = 3\nvalue = [3, 0, 0]\nclass = lived", fillcolor="#e58139"] ;
141 -> 142 ;
143 [label="gini = 0.44\nsamples = 2\nvalue = [0, 2, 1]\nclass = euthanized", fillcolor="#9cf2c0"] ;
141 -> 143 ;
144 [label="gini = 0.0\nsamples = 5\nvalue = [0, 8, 0]\nclass = euthanized", fillcolor="#39e581"] ;
108 -> 144 ;
145 [label="hospital_number <= 530502.0\ngini = 0.53\nsamples = 159\nvalue = [145, 21, 75]\nclass = lived", fillcolor="#f4caac"] ;
107 -> 145 ;
146 [label="abdomo_protein <= 4.65\ngini = 0.52\nsamples = 151\nvalue = [143, 20, 66]\nclass = lived", fillcolor="#f3c3a1"] ;
145 -> 146 ;
147 [label="mucous_membrane <= 4.5\ngini = 0.47\nsamples = 124\nvalue = [128, 12, 50]\nclass = lived", fillcolor="#f1b991"] ;
146 -> 147 ;
148 [label="total_protein <= 7.75\ngini = 0.44\nsamples = 94\nvalue = [102, 12, 29]\nclass = lived", fillcolor="#eeae80"] ;
147 -> 148 ;
149 [label="pulse <= 57.0\ngini = 0.3\nsamples = 68\nvalue = [84, 6, 12]\nclass = lived", fillcolor="#ea9a61"] ;
148 -> 149 ;
150 [label="cp_data <= 0.5\ngini = 0.63\nsamples = 8\nvalue = [5, 2, 4]\nclass = lived", fillcolor="#fbede3"] ;
149 -> 150 ;
151 [label="gini = 0.44\nsamples = 2\nvalue = [0, 2, 1]\nclass = euthanized", fillcolor="#9cf2c0"] ;
150 -> 151 ;
152 [label="respiratory_rate <= 24.0\ngini = 0.47\nsamples = 6\nvalue = [5, 0, 3]\nclass = lived", fillcolor="#f5cdb0"] ;
150 -> 152 ;
153 [label="packed_cell_volume <= 51.5\ngini = 0.48\nsamples = 4\nvalue = [2, 0, 3]\nclass = died", fillcolor="#d5bdf6"] ;
152 -> 153 ;
154 [label="gini = 0.44\nsamples = 3\nvalue = [2, 0, 1]\nclass = lived", fillcolor="#f2c09c"] ;
153 -> 154 ;
155 [label="gini = 0.0\nsamples = 1\nvalue = [0, 0, 2]\nclass = died", fillcolor="#8139e5"] ;
153 -> 155 ;
156 [label="gini = 0.0\nsamples = 2\nvalue = [3, 0, 0]\nclass = lived", fillcolor="#e58139"] ;
152 -> 156 ;
157 [label="lesion_1 <= 2163.0\ngini = 0.24\nsamples = 60\nvalue = [79, 4, 8]\nclass = lived", fillcolor="#e99356"] ;
149 -> 157 ;
158 [label="nasogastric_reflux <= 1.5\ngini = 0.5\nsamples = 4\nvalue = [3, 0, 3]\nclass = lived", fillcolor="#ffffff"] ;
157 -> 158 ;
159 [label="gini = 0.38\nsamples = 3\nvalue = [3, 0, 1]\nclass = lived", fillcolor="#eeab7b"] ;
158 -> 159 ;
160 [label="gini = 0.0\nsamples = 1\nvalue = [0, 0, 2]\nclass = died", fillcolor="#8139e5"] ;
158 -> 160 ;
161 [label="abdominal_distention <= 0.5\ngini = 0.19\nsamples = 56\nvalue = [76, 4, 5]\nclass = lived", fillcolor="#e88f4f"] ;
157 -> 161 ;
162 [label="pulse <= 100.0\ngini = 0.28\nsamples = 38\nvalue = [47, 4, 5]\nclass = lived", fillcolor="#ea975c"] ;
161 -> 162 ;
163 [label="rectal_temp <= 37.9\ngini = 0.12\nsamples = 32\nvalue = [43, 0, 3]\nclass = lived", fillcolor="#e78a47"] ;
162 -> 163 ;
164 [label="gini = 0.0\nsamples = 17\nvalue = [27, 0, 0]\nclass = lived", fillcolor="#e58139"] ;
163 -> 164 ;
165 [label="rectal_exam_feces <= 0.5\ngini = 0.27\nsamples = 15\nvalue = [16, 0, 3]\nclass = lived", fillcolor="#ea995e"] ;
163 -> 165 ;
166 [label="abdomen <= 0.83\ngini = 0.4\nsamples = 8\nvalue = [8, 0, 3]\nclass = lived", fillcolor="#efb083"] ;
165 -> 166 ;
167 [label="rectal_temp <= 38.3\ngini = 0.5\nsamples = 5\nvalue = [3, 0, 3]\nclass = lived", fillcolor="#ffffff"] ;
166 -> 167 ;
168 [label="nasogastric_reflux <= 1.5\ngini = 0.48\nsamples = 4\nvalue = [2, 0, 3]\nclass = died", fillcolor="#d5bdf6"] ;
167 -> 168 ;
169 [label="gini = 0.0\nsamples = 2\nvalue = [0, 0, 3]\nclass = died", fillcolor="#8139e5"] ;
168 -> 169 ;
170 [label="gini = 0.0\nsamples = 2\nvalue = [2, 0, 0]\nclass = lived", fillcolor="#e58139"] ;
168 -> 170 ;
171 [label="gini = 0.0\nsamples = 1\nvalue = [1, 0, 0]\nclass = lived", fillcolor="#e58139"] ;
167 -> 171 ;
172 [label="gini = 0.0\nsamples = 3\nvalue = [5, 0, 0]\nclass = lived", fillcolor="#e58139"] ;
166 -> 172 ;
173 [label="gini = 0.0\nsamples = 7\nvalue = [8, 0, 0]\nclass = lived", fillcolor="#e58139"] ;
165 -> 173 ;
174 [label="peristalsis <= 1.5\ngini = 0.64\nsamples = 6\nvalue = [4, 4, 2]\nclass = lived", fillcolor="#ffffff"] ;
162 -> 174 ;
175 [label="gini = 0.0\nsamples = 2\nvalue = [0, 4, 0]\nclass = euthanized", fillcolor="#39e581"] ;
174 -> 175 ;
176 [label="hospital_number <= 529363.0\ngini = 0.44\nsamples = 4\nvalue = [4, 0, 2]\nclass = lived", fillcolor="#f2c09c"] ;
174 -> 176 ;
177 [label="gini = 0.44\nsamples = 2\nvalue = [1, 0, 2]\nclass = died", fillcolor="#c09cf2"] ;
176 -> 177 ;
178 [label="gini = 0.0\nsamples = 2\nvalue = [3, 0, 0]\nclass = lived", fillcolor="#e58139"] ;
176 -> 178 ;
179 [label="gini = 0.0\nsamples = 18\nvalue = [29, 0, 0]\nclass = lived", fillcolor="#e58139"] ;
161 -> 179 ;
180 [label="lesion_1 <= 3158.0\ngini = 0.61\nsamples = 26\nvalue = [18, 6, 17]\nclass = lived", fillcolor="#fefaf7"] ;
148 -> 180 ;
181 [label="peristalsis <= 1.5\ngini = 0.57\nsamples = 20\nvalue = [9, 4, 17]\nclass = died", fillcolor="#cfb4f5"] ;
180 -> 181 ;
182 [label="lesion_1 <= 2164.5\ngini = 0.55\nsamples = 13\nvalue = [8, 1, 8]\nclass = lived", fillcolor="#ffffff"] ;
181 -> 182 ;
183 [label="gini = 0.0\nsamples = 3\nvalue = [0, 0, 4]\nclass = died", fillcolor="#8139e5"] ;
182 -> 183 ;
184 [label="nasogastric_reflux_ph <= 1.5\ngini = 0.52\nsamples = 10\nvalue = [8, 1, 4]\nclass = lived", fillcolor="#f3c7a7"] ;
182 -> 184 ;
185 [label="gini = 0.0\nsamples = 1\nvalue = [0, 0, 2]\nclass = died", fillcolor="#8139e5"] ;
184 -> 185 ;
186 [label="temp_of_extremities <= 0.5\ngini = 0.43\nsamples = 9\nvalue = [8, 1, 2]\nclass = lived", fillcolor="#eeab7b"] ;
184 -> 186 ;
187 [label="packed_cell_volume <= 71.0\ngini = 0.48\nsamples = 4\nvalue = [3, 0, 2]\nclass = lived", fillcolor="#f6d5bd"] ;
186 -> 187 ;
188 [label="gini = 0.44\nsamples = 2\nvalue = [1, 0, 2]\nclass = died", fillcolor="#c09cf2"] ;
187 -> 188 ;
189 [label="gini = 0.0\nsamples = 2\nvalue = [2, 0, 0]\nclass = lived", fillcolor="#e58139"] ;
187 -> 189 ;
190 [label="hospital_number <= 528657.5\ngini = 0.28\nsamples = 5\nvalue = [5, 1, 0]\nclass = lived", fillcolor="#ea9a61"] ;
186 -> 190 ;
191 [label="gini = 0.0\nsamples = 1\nvalue = [0, 1, 0]\nclass = euthanized", fillcolor="#39e581"] ;
190 -> 191 ;
192 [label="gini = 0.0\nsamples = 4\nvalue = [5, 0, 0]\nclass = lived", fillcolor="#e58139"] ;
190 -> 192 ;
193 [label="respiratory_rate <= 48.0\ngini = 0.46\nsamples = 7\nvalue = [1, 3, 9]\nclass = died", fillcolor="#b388ef"] ;
181 -> 193 ;
194 [label="pain <= 1.5\ngini = 0.18\nsamples = 6\nvalue = [1, 0, 9]\nclass = died", fillcolor="#8f4fe8"] ;
193 -> 194 ;
195 [label="gini = 0.5\nsamples = 2\nvalue = [1, 0, 1]\nclass = lived", fillcolor="#ffffff"] ;
194 -> 195 ;
196 [label="gini = 0.0\nsamples = 4\nvalue = [0, 0, 8]\nclass = died", fillcolor="#8139e5"] ;
194 -> 196 ;
197 [label="gini = 0.0\nsamples = 1\nvalue = [0, 3, 0]\nclass = euthanized", fillcolor="#39e581"] ;
193 -> 197 ;
198 [label="lesion_1 <= 5160.0\ngini = 0.3\nsamples = 6\nvalue = [9, 2, 0]\nclass = lived", fillcolor="#eb9d65"] ;
180 -> 198 ;
199 [label="gini = 0.0\nsamples = 5\nvalue = [9, 0, 0]\nclass = lived", fillcolor="#e58139"] ;
198 -> 199 ;
200 [label="gini = 0.0\nsamples = 1\nvalue = [0, 2, 0]\nclass = euthanized", fillcolor="#39e581"] ;
198 -> 200 ;
201 [label="pulse <= 69.0\ngini = 0.49\nsamples = 30\nvalue = [26, 0, 21]\nclass = lived", fillcolor="#fae7d9"] ;
147 -> 201 ;
202 [label="peripheral_pulse <= 1.5\ngini = 0.34\nsamples = 9\nvalue = [3, 0, 11]\nclass = died", fillcolor="#a36fec"] ;
201 -> 202 ;
203 [label="gini = 0.0\nsamples = 1\nvalue = [2, 0, 0]\nclass = lived", fillcolor="#e58139"] ;
202 -> 203 ;
204 [label="nasogastric_tube <= 1.5\ngini = 0.15\nsamples = 8\nvalue = [1, 0, 11]\nclass = died", fillcolor="#8c4be7"] ;
202 -> 204 ;
205 [label="gini = 0.5\nsamples = 2\nvalue = [1, 0, 1]\nclass = lived", fillcolor="#ffffff"] ;
204 -> 205 ;
206 [label="gini = 0.0\nsamples = 6\nvalue = [0, 0, 10]\nclass = died", fillcolor="#8139e5"] ;
204 -> 206 ;
207 [label="packed_cell_volume <= 35.0\ngini = 0.42\nsamples = 21\nvalue = [23, 0, 10]\nclass = lived", fillcolor="#f0b88f"] ;
201 -> 207 ;
208 [label="gini = 0.0\nsamples = 2\nvalue = [0, 0, 2]\nclass = died", fillcolor="#8139e5"] ;
207 -> 208 ;
209 [label="pulse <= 122.0\ngini = 0.38\nsamples = 19\nvalue = [23, 0, 8]\nclass = lived", fillcolor="#eead7e"] ;
207 -> 209 ;
210 [label="lesion_1 <= 8304.5\ngini = 0.3\nsamples = 16\nvalue = [22, 0, 5]\nclass = lived", fillcolor="#eb9e66"] ;
209 -> 210 ;
211 [label="total_protein <= 8.05\ngini = 0.1\nsamples = 11\nvalue = [18, 0, 1]\nclass = lived", fillcolor="#e68844"] ;
210 -> 211 ;
212 [label="gini = 0.0\nsamples = 9\nvalue = [17, 0, 0]\nclass = lived", fillcolor="#e58139"] ;
211 -> 212 ;
213 [label="gini = 0.5\nsamples = 2\nvalue = [1, 0, 1]\nclass = lived", fillcolor="#ffffff"] ;
211 -> 213 ;
214 [label="pain <= 3.5\ngini = 0.5\nsamples = 5\nvalue = [4, 0, 4]\nclass = lived", fillcolor="#ffffff"] ;
210 -> 214 ;
215 [label="gini = 0.0\nsamples = 2\nvalue = [0, 0, 4]\nclass = died", fillcolor="#8139e5"] ;
214 -> 215 ;
216 [label="gini = 0.0\nsamples = 3\nvalue = [4, 0, 0]\nclass = lived", fillcolor="#e58139"] ;
214 -> 216 ;
217 [label="gini = 0.38\nsamples = 3\nvalue = [1, 0, 3]\nclass = died", fillcolor="#ab7bee"] ;
209 -> 217 ;
218 [label="respiratory_rate <= 32.0\ngini = 0.64\nsamples = 27\nvalue = [15, 8, 16]\nclass = died", fillcolor="#faf7fe"] ;
146 -> 218 ;
219 [label="pulse <= 50.0\ngini = 0.6\nsamples = 17\nvalue = [6, 5, 13]\nclass = died", fillcolor="#ceb2f5"] ;
218 -> 219 ;
220 [label="gini = 0.48\nsamples = 3\nvalue = [0, 3, 2]\nclass = euthanized", fillcolor="#bdf6d5"] ;
219 -> 220 ;
221 [label="hospital_number <= 530067.5\ngini = 0.55\nsamples = 14\nvalue = [6, 2, 11]\nclass = died", fillcolor="#cfb3f5"] ;
219 -> 221 ;
222 [label="rectal_temp <= 37.65\ngini = 0.43\nsamples = 12\nvalue = [5, 0, 11]\nclass = died", fillcolor="#ba93f1"] ;
221 -> 222 ;
223 [label="gini = 0.0\nsamples = 3\nvalue = [0, 0, 4]\nclass = died", fillcolor="#8139e5"] ;
222 -> 223 ;
224 [label="abdomo_protein <= 6.25\ngini = 0.49\nsamples = 9\nvalue = [5, 0, 7]\nclass = died", fillcolor="#dbc6f8"] ;
222 -> 224 ;
225 [label="mucous_membrane <= 1.0\ngini = 0.22\nsamples = 6\nvalue = [1, 0, 7]\nclass = died", fillcolor="#9355e9"] ;
224 -> 225 ;
226 [label="gini = 0.0\nsamples = 1\nvalue = [1, 0, 0]\nclass = lived", fillcolor="#e58139"] ;
225 -> 226 ;
227 [label="gini = 0.0\nsamples = 5\nvalue = [0, 0, 7]\nclass = died", fillcolor="#8139e5"] ;
225 -> 227 ;
228 [label="gini = 0.0\nsamples = 3\nvalue = [4, 0, 0]\nclass = lived", fillcolor="#e58139"] ;
224 -> 228 ;
229 [label="gini = 0.44\nsamples = 2\nvalue = [1, 2, 0]\nclass = euthanized", fillcolor="#9cf2c0"] ;
221 -> 229 ;
230 [label="temp_of_extremities <= 1.33\ngini = 0.56\nsamples = 10\nvalue = [9, 3, 3]\nclass = lived", fillcolor="#f2c09c"] ;
218 -> 230 ;
231 [label="peripheral_pulse <= 2.33\ngini = 0.46\nsamples = 8\nvalue = [9, 3, 1]\nclass = lived", fillcolor="#efb388"] ;
230 -> 231 ;
232 [label="gini = 0.0\nsamples = 1\nvalue = [0, 0, 1]\nclass = died", fillcolor="#8139e5"] ;
231 -> 232 ;
233 [label="respiratory_rate <= 38.0\ngini = 0.38\nsamples = 7\nvalue = [9, 3, 0]\nclass = lived", fillcolor="#eeab7b"] ;
231 -> 233 ;
234 [label="gini = 0.0\nsamples = 4\nvalue = [6, 0, 0]\nclass = lived", fillcolor="#e58139"] ;
233 -> 234 ;
235 [label="gini = 0.5\nsamples = 3\nvalue = [3, 3, 0]\nclass = lived", fillcolor="#ffffff"] ;
233 -> 235 ;
236 [label="gini = 0.0\nsamples = 2\nvalue = [0, 0, 2]\nclass = died", fillcolor="#8139e5"] ;
230 -> 236 ;
237 [label="hospital_number <= 530569.0\ngini = 0.4\nsamples = 8\nvalue = [2, 1, 9]\nclass = died", fillcolor="#a774ed"] ;
145 -> 237 ;
238 [label="gini = 0.0\nsamples = 4\nvalue = [0, 0, 8]\nclass = died", fillcolor="#8139e5"] ;
237 -> 238 ;
239 [label="lesion_1 <= 2160.0\ngini = 0.62\nsamples = 4\nvalue = [2, 1, 1]\nclass = lived", fillcolor="#f6d5bd"] ;
237 -> 239 ;
240 [label="gini = 0.0\nsamples = 2\nvalue = [2, 0, 0]\nclass = lived", fillcolor="#e58139"] ;
239 -> 240 ;
241 [label="gini = 0.5\nsamples = 2\nvalue = [0, 1, 1]\nclass = euthanized", fillcolor="#ffffff"] ;
239 -> 241 ;
242 [label="age <= 0.5\ngini = 0.63\nsamples = 209\nvalue = [58.0, 144.0, 139.0]\nclass = euthanized", fillcolor="#fafefc"] ;
0 -> 242 [labeldistance=2.5, labelangle=-45, headlabel="False"] ;
243 [label="abdomo_protein <= 2.45\ngini = 0.6\nsamples = 195\nvalue = [41, 144, 135]\nclass = euthanized", fillcolor="#f5fef9"] ;
242 -> 243 ;
244 [label="respiratory_rate <= 15.0\ngini = 0.53\nsamples = 153\nvalue = [10, 139, 105]\nclass = euthanized", fillcolor="#d2f9e2"] ;
243 -> 244 ;
245 [label="peristalsis <= 1.5\ngini = 0.31\nsamples = 18\nvalue = [0, 5, 21]\nclass = died", fillcolor="#9f68eb"] ;
244 -> 245 ;
246 [label="hospital_number <= 534021.5\ngini = 0.49\nsamples = 7\nvalue = [0, 4, 3]\nclass = euthanized", fillcolor="#cef8e0"] ;
245 -> 246 ;
247 [label="gini = 0.0\nsamples = 3\nvalue = [0, 3, 0]\nclass = euthanized", fillcolor="#39e581"] ;
246 -> 247 ;
248 [label="abdomen <= 0.5\ngini = 0.38\nsamples = 4\nvalue = [0, 1, 3]\nclass = died", fillcolor="#ab7bee"] ;
246 -> 248 ;
249 [label="gini = 0.5\nsamples = 2\nvalue = [0, 1, 1]\nclass = euthanized", fillcolor="#ffffff"] ;
248 -> 249 ;
250 [label="gini = 0.0\nsamples = 2\nvalue = [0, 0, 2]\nclass = died", fillcolor="#8139e5"] ;
248 -> 250 ;
251 [label="abdomo_appearance <= 1.5\ngini = 0.1\nsamples = 11\nvalue = [0, 1, 18]\nclass = died", fillcolor="#8844e6"] ;
245 -> 251 ;
252 [label="gini = 0.0\nsamples = 8\nvalue = [0, 0, 16]\nclass = died", fillcolor="#8139e5"] ;
251 -> 252 ;
253 [label="gini = 0.44\nsamples = 3\nvalue = [0, 1, 2]\nclass = died", fillcolor="#c09cf2"] ;
251 -> 253 ;
254 [label="abdomo_appearance <= 0.83\ngini = 0.52\nsamples = 135\nvalue = [10, 134, 84]\nclass = euthanized", fillcolor="#baf6d3"] ;
244 -> 254 ;
255 [label="rectal_exam_feces <= 1.33\ngini = 0.49\nsamples = 30\nvalue = [1.0, 18.0, 30.0]\nclass = died", fillcolor="#ceb2f5"] ;
254 -> 255 ;
256 [label="abdomen <= 0.67\ngini = 0.53\nsamples = 20\nvalue = [1, 17, 17]\nclass = euthanized", fillcolor="#ffffff"] ;
255 -> 256 ;
257 [label="nasogastric_reflux <= 1.5\ngini = 0.36\nsamples = 10\nvalue = [0, 13, 4]\nclass = euthanized", fillcolor="#76eda8"] ;
256 -> 257 ;
258 [label="hospital_number <= 534852.0\ngini = 0.23\nsamples = 9\nvalue = [0, 13, 2]\nclass = euthanized", fillcolor="#57e994"] ;
257 -> 258 ;
259 [label="gini = 0.0\nsamples = 7\nvalue = [0, 11, 0]\nclass = euthanized", fillcolor="#39e581"] ;
258 -> 259 ;
260 [label="gini = 0.5\nsamples = 2\nvalue = [0, 2, 2]\nclass = euthanized", fillcolor="#ffffff"] ;
258 -> 260 ;
261 [label="gini = 0.0\nsamples = 1\nvalue = [0, 0, 2]\nclass = died", fillcolor="#8139e5"] ;
257 -> 261 ;
262 [label="lesion_1 <= 1755.5\ngini = 0.43\nsamples = 10\nvalue = [1, 4, 13]\nclass = died", fillcolor="#ae80ee"] ;
256 -> 262 ;
263 [label="gini = 0.44\nsamples = 2\nvalue = [1, 2, 0]\nclass = euthanized", fillcolor="#9cf2c0"] ;
262 -> 263 ;
264 [label="nasogastric_reflux_ph <= 3.5\ngini = 0.23\nsamples = 8\nvalue = [0, 2, 13]\nclass = died", fillcolor="#9457e9"] ;
262 -> 264 ;
265 [label="hospital_number <= 534092.0\ngini = 0.13\nsamples = 7\nvalue = [0, 1, 13]\nclass = died", fillcolor="#8b48e7"] ;
264 -> 265 ;
266 [label="gini = 0.0\nsamples = 1\nvalue = [0, 1, 0]\nclass = euthanized", fillcolor="#39e581"] ;
265 -> 266 ;
267 [label="gini = 0.0\nsamples = 6\nvalue = [0, 0, 13]\nclass = died", fillcolor="#8139e5"] ;
265 -> 267 ;
268 [label="gini = 0.0\nsamples = 1\nvalue = [0, 1, 0]\nclass = euthanized", fillcolor="#39e581"] ;
264 -> 268 ;
269 [label="respiratory_rate <= 20.0\ngini = 0.13\nsamples = 10\nvalue = [0, 1, 13]\nclass = died", fillcolor="#8b48e7"] ;
255 -> 269 ;
270 [label="rectal_temp <= 37.4\ngini = 0.38\nsamples = 4\nvalue = [0, 1, 3]\nclass = died", fillcolor="#ab7bee"] ;
269 -> 270 ;
271 [label="gini = 0.0\nsamples = 1\nvalue = [0, 1, 0]\nclass = euthanized", fillcolor="#39e581"] ;
270 -> 271 ;
272 [label="gini = 0.0\nsamples = 3\nvalue = [0, 0, 3]\nclass = died", fillcolor="#8139e5"] ;
270 -> 272 ;
273 [label="gini = 0.0\nsamples = 6\nvalue = [0, 0, 10]\nclass = died", fillcolor="#8139e5"] ;
269 -> 273 ;
274 [label="temp_of_extremities <= 1.17\ngini = 0.49\nsamples = 105\nvalue = [9, 116, 54]\nclass = euthanized", fillcolor="#9df2c1"] ;
254 -> 274 ;
275 [label="nasogastric_reflux_ph <= 2.5\ngini = 0.46\nsamples = 90\nvalue = [8, 102, 38]\nclass = euthanized", fillcolor="#8cf0b6"] ;
274 -> 275 ;
276 [label="hospital_number <= 533915.0\ngini = 0.39\nsamples = 81\nvalue = [4, 101, 30]\nclass = euthanized", fillcolor="#79edaa"] ;
275 -> 276 ;
277 [label="mucous_membrane <= 3.5\ngini = 0.62\nsamples = 10\nvalue = [3, 4, 7]\nclass = died", fillcolor="#d9c4f7"] ;
276 -> 277 ;
278 [label="gini = 0.0\nsamples = 3\nvalue = [0, 0, 5]\nclass = died", fillcolor="#8139e5"] ;
277 -> 278 ;
279 [label="abdominal_distention <= 0.5\ngini = 0.64\nsamples = 7\nvalue = [3, 4, 2]\nclass = euthanized", fillcolor="#defbea"] ;
277 -> 279 ;
280 [label="gini = 0.0\nsamples = 2\nvalue = [0, 2, 0]\nclass = euthanized", fillcolor="#39e581"] ;
279 -> 280 ;
281 [label="packed_cell_volume <= 56.0\ngini = 0.65\nsamples = 5\nvalue = [3, 2, 2]\nclass = lived", fillcolor="#fae6d7"] ;
279 -> 281 ;
282 [label="gini = 0.38\nsamples = 2\nvalue = [3, 0, 1]\nclass = lived", fillcolor="#eeab7b"] ;
281 -> 282 ;
283 [label="gini = 0.44\nsamples = 3\nvalue = [0, 2, 1]\nclass = euthanized", fillcolor="#9cf2c0"] ;
281 -> 283 ;
284 [label="abdominal_distention <= 1.5\ngini = 0.32\nsamples = 71\nvalue = [1, 97, 23]\nclass = euthanized", fillcolor="#69eba0"] ;
276 -> 284 ;
285 [label="pulse <= 66.0\ngini = 0.4\nsamples = 46\nvalue = [1, 61, 22]\nclass = euthanized", fillcolor="#82efb0"] ;
284 -> 285 ;
286 [label="pain <= 2.83\ngini = 0.5\nsamples = 11\nvalue = [0, 11, 12]\nclass = died", fillcolor="#f5effd"] ;
285 -> 286 ;
287 [label="nasogastric_reflux <= 0.5\ngini = 0.3\nsamples = 5\nvalue = [0, 9, 2]\nclass = euthanized", fillcolor="#65eb9d"] ;
286 -> 287 ;
288 [label="gini = 0.0\nsamples = 1\nvalue = [0, 0, 1]\nclass = died", fillcolor="#8139e5"] ;
287 -> 288 ;
289 [label="rectal_temp <= 38.6\ngini = 0.18\nsamples = 4\nvalue = [0, 9, 1]\nclass = euthanized", fillcolor="#4fe88f"] ;
287 -> 289 ;
290 [label="gini = 0.0\nsamples = 3\nvalue = [0, 9, 0]\nclass = euthanized", fillcolor="#39e581"] ;
289 -> 290 ;
291 [label="gini = 0.0\nsamples = 1\nvalue = [0, 0, 1]\nclass = died", fillcolor="#8139e5"] ;
289 -> 291 ;
292 [label="surgical_lesion <= 0.5\ngini = 0.28\nsamples = 6\nvalue = [0, 2, 10]\nclass = died", fillcolor="#9a61ea"] ;
286 -> 292 ;
293 [label="gini = 0.0\nsamples = 1\nvalue = [0, 2, 0]\nclass = euthanized", fillcolor="#39e581"] ;
292 -> 293 ;
294 [label="gini = 0.0\nsamples = 5\nvalue = [0, 0, 10]\nclass = died", fillcolor="#8139e5"] ;
292 -> 294 ;
295 [label="nasogastric_reflux <= 1.5\ngini = 0.3\nsamples = 35\nvalue = [1, 50, 10]\nclass = euthanized", fillcolor="#64eb9c"] ;
285 -> 295 ;
296 [label="mucous_membrane <= 2.5\ngini = 0.27\nsamples = 30\nvalue = [1, 44, 7]\nclass = euthanized", fillcolor="#5cea97"] ;
295 -> 296 ;
297 [label="gini = 0.0\nsamples = 7\nvalue = [0, 17, 0]\nclass = euthanized", fillcolor="#39e581"] ;
296 -> 297 ;
298 [label="temp_of_extremities <= 0.5\ngini = 0.36\nsamples = 23\nvalue = [1, 27, 7]\nclass = euthanized", fillcolor="#72eca5"] ;
296 -> 298 ;
299 [label="gini = 0.0\nsamples = 2\nvalue = [0, 0, 2]\nclass = died", fillcolor="#8139e5"] ;
298 -> 299 ;
300 [label="nasogastric_reflux <= 0.5\ngini = 0.31\nsamples = 21\nvalue = [1, 27, 5]\nclass = euthanized", fillcolor="#63eb9c"] ;
298 -> 300 ;
301 [label="gini = 0.0\nsamples = 4\nvalue = [0, 7, 0]\nclass = euthanized", fillcolor="#39e581"] ;
300 -> 301 ;
302 [label="cp_data <= 0.5\ngini = 0.37\nsamples = 17\nvalue = [1, 20, 5]\nclass = euthanized", fillcolor="#72eca5"] ;
300 -> 302 ;
303 [label="nasogastric_tube <= 1.67\ngini = 0.35\nsamples = 14\nvalue = [0, 17, 5]\nclass = euthanized", fillcolor="#73eda6"] ;
302 -> 303 ;
304 [label="abdomen <= 0.33\ngini = 0.12\nsamples = 9\nvalue = [0, 15, 1]\nclass = euthanized", fillcolor="#46e789"] ;
303 -> 304 ;
305 [label="gini = 0.0\nsamples = 5\nvalue = [0, 9, 0]\nclass = euthanized", fillcolor="#39e581"] ;
304 -> 305 ;
306 [label="peristalsis <= 0.5\ngini = 0.24\nsamples = 4\nvalue = [0, 6, 1]\nclass = euthanized", fillcolor="#5ae996"] ;
304 -> 306 ;
307 [label="gini = 0.44\nsamples = 2\nvalue = [0, 2, 1]\nclass = euthanized", fillcolor="#9cf2c0"] ;
306 -> 307 ;
308 [label="gini = 0.0\nsamples = 2\nvalue = [0, 4, 0]\nclass = euthanized", fillcolor="#39e581"] ;
306 -> 308 ;
309 [label="lesion_1 <= 2205.5\ngini = 0.44\nsamples = 5\nvalue = [0, 2, 4]\nclass = died", fillcolor="#c09cf2"] ;
303 -> 309 ;
310 [label="gini = 0.0\nsamples = 1\nvalue = [0, 1, 0]\nclass = euthanized", fillcolor="#39e581"] ;
309 -> 310 ;
311 [label="respiratory_rate <= 25.0\ngini = 0.32\nsamples = 4\nvalue = [0, 1, 4]\nclass = died", fillcolor="#a06aec"] ;
309 -> 311 ;
312 [label="gini = 0.5\nsamples = 2\nvalue = [0, 1, 1]\nclass = euthanized", fillcolor="#ffffff"] ;
311 -> 312 ;
313 [label="gini = 0.0\nsamples = 2\nvalue = [0, 0, 3]\nclass = died", fillcolor="#8139e5"] ;
311 -> 313 ;
314 [label="gini = 0.38\nsamples = 3\nvalue = [1, 3, 0]\nclass = euthanized", fillcolor="#7beeab"] ;
302 -> 314 ;
315 [label="rectal_temp <= 38.35\ngini = 0.44\nsamples = 5\nvalue = [0, 6, 3]\nclass = euthanized", fillcolor="#9cf2c0"] ;
295 -> 315 ;
316 [label="gini = 0.0\nsamples = 3\nvalue = [0, 6, 0]\nclass = euthanized", fillcolor="#39e581"] ;
315 -> 316 ;
317 [label="gini = 0.0\nsamples = 2\nvalue = [0, 0, 3]\nclass = died", fillcolor="#8139e5"] ;
315 -> 317 ;
318 [label="hospital_number <= 534785.5\ngini = 0.05\nsamples = 25\nvalue = [0, 36, 1]\nclass = euthanized", fillcolor="#3ee684"] ;
284 -> 318 ;
319 [label="respiratory_rate <= 31.0\ngini = 0.13\nsamples = 11\nvalue = [0, 13, 1]\nclass = euthanized", fillcolor="#48e78b"] ;
318 -> 319 ;
320 [label="total_protein <= 78.0\ngini = 0.28\nsamples = 5\nvalue = [0, 5, 1]\nclass = euthanized", fillcolor="#61ea9a"] ;
319 -> 320 ;
321 [label="gini = 0.0\nsamples = 3\nvalue = [0, 4, 0]\nclass = euthanized", fillcolor="#39e581"] ;
320 -> 321 ;
322 [label="gini = 0.5\nsamples = 2\nvalue = [0, 1, 1]\nclass = euthanized", fillcolor="#ffffff"] ;
320 -> 322 ;
323 [label="gini = 0.0\nsamples = 6\nvalue = [0, 8, 0]\nclass = euthanized", fillcolor="#39e581"] ;
319 -> 323 ;
324 [label="gini = 0.0\nsamples = 14\nvalue = [0, 23, 0]\nclass = euthanized", fillcolor="#39e581"] ;
318 -> 324 ;
325 [label="hospital_number <= 2912869.5\ngini = 0.52\nsamples = 9\nvalue = [4, 1, 8]\nclass = died", fillcolor="#c7a7f3"] ;
275 -> 325 ;
326 [label="hospital_number <= 534653.0\ngini = 0.43\nsamples = 7\nvalue = [2, 1, 8]\nclass = died", fillcolor="#ab7bee"] ;
325 -> 326 ;
327 [label="gini = 0.62\nsamples = 3\nvalue = [2, 1, 1]\nclass = lived", fillcolor="#f6d5bd"] ;
326 -> 327 ;
328 [label="gini = 0.0\nsamples = 4\nvalue = [0, 0, 7]\nclass = died", fillcolor="#8139e5"] ;
326 -> 328 ;
329 [label="gini = 0.0\nsamples = 2\nvalue = [2, 0, 0]\nclass = lived", fillcolor="#e58139"] ;
325 -> 329 ;
330 [label="surgical_lesion <= 0.5\ngini = 0.53\nsamples = 15\nvalue = [1, 14, 16]\nclass = died", fillcolor="#f0e8fc"] ;
274 -> 330 ;
331 [label="nasogastric_reflux <= 1.5\ngini = 0.26\nsamples = 6\nvalue = [0, 11, 2]\nclass = euthanized", fillcolor="#5dea98"] ;
330 -> 331 ;
332 [label="peripheral_pulse <= 2.5\ngini = 0.15\nsamples = 5\nvalue = [0, 11, 1]\nclass = euthanized", fillcolor="#4be78c"] ;
331 -> 332 ;
333 [label="gini = 0.28\nsamples = 3\nvalue = [0, 5, 1]\nclass = euthanized", fillcolor="#61ea9a"] ;
332 -> 333 ;
334 [label="gini = 0.0\nsamples = 2\nvalue = [0, 6, 0]\nclass = euthanized", fillcolor="#39e581"] ;
332 -> 334 ;
335 [label="gini = 0.0\nsamples = 1\nvalue = [0, 0, 1]\nclass = died", fillcolor="#8139e5"] ;
331 -> 335 ;
336 [label="pulse <= 75.0\ngini = 0.36\nsamples = 9\nvalue = [1, 3, 14]\nclass = died", fillcolor="#a36eec"] ;
330 -> 336 ;
337 [label="gini = 0.0\nsamples = 5\nvalue = [0, 0, 9]\nclass = died", fillcolor="#8139e5"] ;
336 -> 337 ;
338 [label="lesion_1 <= 2707.0\ngini = 0.57\nsamples = 4\nvalue = [1, 3, 5]\nclass = died", fillcolor="#d5bdf6"] ;
336 -> 338 ;
339 [label="gini = 0.0\nsamples = 2\nvalue = [0, 0, 5]\nclass = died", fillcolor="#8139e5"] ;
338 -> 339 ;
340 [label="gini = 0.38\nsamples = 2\nvalue = [1, 3, 0]\nclass = euthanized", fillcolor="#7beeab"] ;
338 -> 340 ;
341 [label="abdomen <= 1.83\ngini = 0.57\nsamples = 42\nvalue = [31, 5, 30]\nclass = lived", fillcolor="#fefbf9"] ;
243 -> 341 ;
342 [label="pain <= 2.67\ngini = 0.56\nsamples = 37\nvalue = [31.0, 5.0, 22.0]\nclass = lived", fillcolor="#f8e0ce"] ;
341 -> 342 ;
343 [label="hospital_number <= 5290481.5\ngini = 0.33\nsamples = 20\nvalue = [26, 0, 7]\nclass = lived", fillcolor="#eca36e"] ;
342 -> 343 ;
344 [label="respiratory_rate <= 25.0\ngini = 0.1\nsamples = 11\nvalue = [18, 0, 1]\nclass = lived", fillcolor="#e68844"] ;
343 -> 344 ;
345 [label="gini = 0.44\nsamples = 2\nvalue = [2, 0, 1]\nclass = lived", fillcolor="#f2c09c"] ;
344 -> 345 ;
346 [label="gini = 0.0\nsamples = 9\nvalue = [16, 0, 0]\nclass = lived", fillcolor="#e58139"] ;
344 -> 346 ;
347 [label="pulse <= 83.0\ngini = 0.49\nsamples = 9\nvalue = [8, 0, 6]\nclass = lived", fillcolor="#f8e0ce"] ;
343 -> 347 ;
348 [label="respiratory_rate <= 30.0\ngini = 0.38\nsamples = 5\nvalue = [2, 0, 6]\nclass = died", fillcolor="#ab7bee"] ;
347 -> 348 ;
349 [label="gini = 0.0\nsamples = 4\nvalue = [0, 0, 6]\nclass = died", fillcolor="#8139e5"] ;
348 -> 349 ;
350 [label="gini = 0.0\nsamples = 1\nvalue = [2, 0, 0]\nclass = lived", fillcolor="#e58139"] ;
348 -> 350 ;
351 [label="gini = 0.0\nsamples = 4\nvalue = [6, 0, 0]\nclass = lived", fillcolor="#e58139"] ;
347 -> 351 ;
352 [label="pain <= 3.5\ngini = 0.56\nsamples = 17\nvalue = [5, 5, 15]\nclass = died", fillcolor="#c09cf2"] ;
342 -> 352 ;
353 [label="abdomo_protein <= 6.5\ngini = 0.44\nsamples = 14\nvalue = [4, 2, 15]\nclass = died", fillcolor="#ad7fee"] ;
352 -> 353 ;
354 [label="hospital_number <= 5291044.0\ngini = 0.35\nsamples = 13\nvalue = [2, 2, 15]\nclass = died", fillcolor="#9f68eb"] ;
353 -> 354 ;
355 [label="peripheral_pulse <= 2.5\ngini = 0.21\nsamples = 12\nvalue = [0, 2, 15]\nclass = died", fillcolor="#9253e8"] ;
354 -> 355 ;
356 [label="gini = 0.0\nsamples = 6\nvalue = [0, 0, 10]\nclass = died", fillcolor="#8139e5"] ;
355 -> 356 ;
357 [label="packed_cell_volume <= 57.0\ngini = 0.41\nsamples = 6\nvalue = [0, 2, 5]\nclass = died", fillcolor="#b388ef"] ;
355 -> 357 ;
358 [label="gini = 0.44\nsamples = 3\nvalue = [0, 2, 1]\nclass = euthanized", fillcolor="#9cf2c0"] ;
357 -> 358 ;
359 [label="gini = 0.0\nsamples = 3\nvalue = [0, 0, 4]\nclass = died", fillcolor="#8139e5"] ;
357 -> 359 ;
360 [label="gini = 0.0\nsamples = 1\nvalue = [2, 0, 0]\nclass = lived", fillcolor="#e58139"] ;
354 -> 360 ;
361 [label="gini = 0.0\nsamples = 1\nvalue = [2, 0, 0]\nclass = lived", fillcolor="#e58139"] ;
353 -> 361 ;
362 [label="gini = 0.38\nsamples = 3\nvalue = [1, 3, 0]\nclass = euthanized", fillcolor="#7beeab"] ;
352 -> 362 ;
363 [label="gini = 0.0\nsamples = 5\nvalue = [0, 0, 8]\nclass = died", fillcolor="#8139e5"] ;
341 -> 363 ;
364 [label="packed_cell_volume <= 47.5\ngini = 0.31\nsamples = 14\nvalue = [17, 0, 4]\nclass = lived", fillcolor="#eb9f68"] ;
242 -> 364 ;
365 [label="gini = 0.0\nsamples = 4\nvalue = [0, 0, 4]\nclass = died", fillcolor="#8139e5"] ;
364 -> 365 ;
366 [label="gini = 0.0\nsamples = 10\nvalue = [17, 0, 0]\nclass = lived", fillcolor="#e58139"] ;
364 -> 366 ;
}